let nn_trained = {
    "no_inp_nodes": 4,
    "no_ans_nodes": 1,
    "no_hidden_layers": 2,
    "no_hidden_nodes": [
        8,
        8
    ],
    "layers": [
        {
            "rows": 4,
            "cols": 1,
            "data": [
                [
                    -0.31092639094544294
                ],
                [
                    -0.02142244276983707
                ],
                [
                    -0.9222685876207053
                ],
                [
                    -0.13264504927785525
                ]
            ]
        },
        {
            "rows": 8,
            "cols": 1,
            "data": [
                [
                    0.6086297138575194
                ],
                [
                    -0.9376405131993595
                ],
                [
                    0.5901150718143571
                ],
                [
                    -0.7687826585774804
                ],
                [
                    -0.3688541586983032
                ],
                [
                    0.029323770261321602
                ],
                [
                    0.6634199692747589
                ],
                [
                    -0.15191454101238477
                ]
            ]
        },
        {
            "rows": 8,
            "cols": 1,
            "data": [
                [
                    -0.8214004796722203
                ],
                [
                    0.24056074451354137
                ],
                [
                    0.48249702698687447
                ],
                [
                    0.994240489131978
                ],
                [
                    -0.10285659103631728
                ],
                [
                    0.5803359224188611
                ],
                [
                    -0.8427582562515883
                ],
                [
                    0.021833982911947825
                ]
            ]
        },
        {
            "rows": 1,
            "cols": 1,
            "data": [
                [
                    0.8144565808301576
                ]
            ]
        }
    ],
    "weights": [
        {
            "rows": 8,
            "cols": 4,
            "data": [
                [
                    -2.3533357851637127,
                    2.3128912582423604,
                    -0.8437079569357298,
                    0.11076628152391048
                ],
                [
                    -2.019078286676666,
                    3.0576467729863204,
                    -0.9882066825459724,
                    -0.5194108891965393
                ],
                [
                    0.14814075063149276,
                    0.633106157676948,
                    -0.7844090307328304,
                    0.11848773094528135
                ],
                [
                    -1.4627407545641526,
                    0.6394077409472605,
                    0.7613599470131878,
                    0.8396761846269181
                ],
                [
                    1.7771128956789852,
                    -1.7953030795950609,
                    -0.7965330480720626,
                    -0.11764623858809493
                ],
                [
                    -1.4502813065823614,
                    1.7403617458383047,
                    -0.7341603819409039,
                    0.385653698366503
                ],
                [
                    -0.6669072791612858,
                    0.2686891619172746,
                    0.10657013254575139,
                    0.5649606606381159
                ],
                [
                    -0.0344784664759588,
                    0.7462822273168686,
                    -0.1893170353818266,
                    -0.5591460242243547
                ]
            ]
        },
        {
            "rows": 8,
            "cols": 8,
            "data": [
                [
                    -0.6255036500648606,
                    -1.021156776267784,
                    -0.5480747027575199,
                    0.9608286900777254,
                    0.337057462601166,
                    -0.7682813664572208,
                    0.10700702676772642,
                    -0.816123842548639
                ],
                [
                    -0.8901699528045707,
                    0.5644416516235424,
                    0.5987179195751119,
                    0.4942530554879033,
                    0.7193501215844054,
                    0.343359866114643,
                    -0.04523084034075535,
                    -0.18388862644961282
                ],
                [
                    1.0001632028132088,
                    1.261066029823728,
                    -0.3171315332887162,
                    0.5925465091075989,
                    -1.3167888222208188,
                    0.9622191193758163,
                    -0.19717612296040696,
                    -0.6416778778263571
                ],
                [
                    -0.43798658672012597,
                    -1.0104098641213155,
                    0.638046714704194,
                    -0.9556382106443935,
                    0.21928828071710632,
                    0.638994269307897,
                    0.12290231713817198,
                    0.12367390143719671
                ],
                [
                    0.572710670160136,
                    0.20723285514856016,
                    -0.2690855069231341,
                    -0.5810763762096463,
                    0.9669273132641798,
                    0.19703658717123865,
                    -0.6120141924531293,
                    -1.0101363430116648
                ],
                [
                    0.995724929120038,
                    0.912249054617072,
                    -0.5270227166613877,
                    0.7408362032233808,
                    -1.266581252067974,
                    0.868854613085773,
                    -0.10122158907799031,
                    0.32533826860717213
                ],
                [
                    0.7931251938098848,
                    1.002046586235617,
                    0.5353666866028378,
                    0.7184989408368314,
                    0.4445844962919795,
                    0.5741876783417413,
                    0.28385232831148866,
                    -0.6156970783608472
                ],
                [
                    0.13643091804256968,
                    -0.6991238631766288,
                    0.20091785931136308,
                    -0.5040152910966333,
                    -0.06325395765591736,
                    0.3879136067708889,
                    0.201400800968173,
                    0.004111680256814191
                ]
            ]
        },
        {
            "rows": 1,
            "cols": 8,
            "data": [
                [
                    0.7225901236524008,
                    0.2932706576459087,
                    -0.8588941285364476,
                    0.2345206079149557,
                    0.21228154130206203,
                    -0.7835985197454078,
                    -0.7736612566338069,
                    -0.07168612378209485
                ]
            ]
        }
    ],
    "bias": [
        {
            "rows": 8,
            "cols": 1,
            "data": [
                [
                    0.12357556122769292
                ],
                [
                    -0.09969874602854058
                ],
                [
                    0.7260658616526283
                ],
                [
                    -0.15248939537179088
                ],
                [
                    0.5051168890220958
                ],
                [
                    0.008614982313848212
                ],
                [
                    -0.5813707464573118
                ],
                [
                    -0.4042088656175315
                ]
            ]
        },
        {
            "rows": 8,
            "cols": 1,
            "data": [
                [
                    0.22309764479745828
                ],
                [
                    -0.5638443425793699
                ],
                [
                    -0.5604992834792208
                ],
                [
                    0.9006985483926335
                ],
                [
                    -0.16051218753077534
                ],
                [
                    -0.7317786696841488
                ],
                [
                    -0.3661843866029523
                ],
                [
                    0.9090435989180146
                ]
            ]
        },
        {
            "rows": 1,
            "cols": 1,
            "data": [
                [
                    0.8599979507699401
                ]
            ]
        }
    ],
    "forw_prop": [
        {
            "rows": 4,
            "cols": 1,
            "data": [
                [
                    0.5000015596941464
                ],
                [
                    0.4999985401696128
                ],
                [
                    0.49999998662240863
                ],
                [
                    0.49999701378037553
                ]
            ],
            "label": {
                "rows": 1,
                "cols": 1,
                "data": [
                    [
                        0.5000009363474881
                    ]
                ]
            }
        },
        {
            "rows": 8,
            "cols": 1,
            "data": [
                [
                    0.4345957362445531
                ],
                [
                    0.41721197216922284
                ],
                [
                    0.6864828333508922
                ],
                [
                    0.5588155153966528
                ],
                [
                    0.5097332407961432
                ],
                [
                    0.494849164611521
                ],
                [
                    0.3906175235134204
                ],
                [
                    0.39590966015226375
                ]
            ]
        },
        {
            "rows": 8,
            "cols": 1,
            "data": [
                [
                    0.3092161854257793
                ],
                [
                    0.6030298822484838
                ],
                [
                    0.4968983991037345
                ],
                [
                    0.6721079050292799
                ],
                [
                    0.40535552534036295
                ],
                [
                    0.5018395237475272
                ],
                [
                    0.8239686954923614
                ],
                [
                    0.6841570155339752
                ]
            ]
        },
        {
            "rows": 1,
            "cols": 1,
            "data": [
                [
                    0.49935427240198044
                ]
            ]
        }
    ],
    "learning_rate": 0.01
}
